digraph Tree {
node [shape=box] ;
0 [label="X[0] <= -0.494\nentropy = 1.583\nsamples = 104\nvalue = [33, 34, 37]"] ;
1 [label="X[1] <= -0.837\nentropy = 0.513\nsamples = 35\nvalue = [31, 4, 0]"] ;
0 -> 1 [labeldistance=2.5, labelangle=45, headlabel="True"] ;
2 [label="entropy = 0.0\nsamples = 3\nvalue = [0, 3, 0]"] ;
1 -> 2 ;
3 [label="X[0] <= -0.614\nentropy = 0.201\nsamples = 32\nvalue = [31, 1, 0]"] ;
1 -> 3 ;
4 [label="entropy = 0.0\nsamples = 28\nvalue = [28, 0, 0]"] ;
3 -> 4 ;
5 [label="entropy = 0.811\nsamples = 4\nvalue = [3, 1, 0]"] ;
3 -> 5 ;
6 [label="X[1] <= 2.106\nentropy = 1.153\nsamples = 69\nvalue = [2, 30, 37]"] ;
0 -> 6 [labeldistance=2.5, labelangle=-45, headlabel="False"] ;
7 [label="X[0] <= 1.426\nentropy = 0.992\nsamples = 67\nvalue = [0, 30, 37]"] ;
6 -> 7 ;
8 [label="entropy = 0.998\nsamples = 57\nvalue = [0, 30, 27]"] ;
7 -> 8 ;
9 [label="entropy = 0.0\nsamples = 10\nvalue = [0, 0, 10]"] ;
7 -> 9 ;
10 [label="entropy = 0.0\nsamples = 2\nvalue = [2, 0, 0]"] ;
6 -> 10 ;
}